{
  "layers": [
    {
      "activation": 1,
      "biases": [
        1.4385148149243778,
        2.1165568420320104,
        -0.6308407696738114
      ],
      "cols": 3,
      "rows": 2,
      "weights": [
        [
          -0.5736836246105939,
          2.7932754087497735,
          -2.3828641430843818
        ],
        [
          -3.6837093380567354,
          -3.668116615757183,
          1.3221224769717166
        ]
      ]
    },
    {
      "activation": 1,
      "biases": [
        0.8767466602079919,
        -0.7004938861964838,
        -0.03760082387521873,
        -0.9244130097174474,
        0.10478247490591783,
        -0.03232282453113342,
        -0.38185767129703024,
        -0.2776637005655249,
        0.003113547625767989,
        0.09421524997487797,
        -0.5569995807569397,
        1.22178344672448
      ],
      "cols": 12,
      "rows": 3,
      "weights": [
        [
          0.06620971218311834,
          0.03558734441277473,
          -2.445974950694805,
          0.14691126754082381,
          -1.1936893385290193,
          -0.9844866064239846,
          0.14318501634863742,
          0.059286562453367206,
          -1.7786187499079553,
          -0.06908600146904194,
          -0.09732160244235637,
          -2.664360095225805
        ],
        [
          -0.16765312082456246,
          -0.15936676601043337,
          -0.5727290425356908,
          -0.19530392918804487,
          -2.427725751066966,
          -2.955526095611393,
          -0.42821994949436054,
          -0.16201694453081156,
          -0.30784356674466296,
          0.20129923898066765,
          1.502088568241185,
          -0.21550889848697977
        ],
        [
          -0.17153652348631987,
          -0.20188005820448937,
          -0.6335477274366952,
          -0.5877494747513833,
          1.3772629803109124,
          2.350618794360026,
          -0.47407873454923805,
          -0.17223427478244555,
          -0.37217302080298703,
          0.22056273225248843,
          -0.518049749550944,
          -0.21364529144955366
        ]
      ]
    }
  ]
}
